tree
version=v4
num_class=1
num_tree_per_iteration=1
label_index=0
max_feature_idx=6
objective=lambdarank
feature_names=BM25_Score SBERT_Score rating_signal popularity_signal recency_signal genre_match platform_match
feature_infos=[0:31.12783701429197] [0:0.82442396879196167] [0:4.7000000000000002] [0:30] [0:28] [0:1] [0:1]
tree_sizes=3401 3349 3366 3364 3381 3392 3395 3363 3399 3381

Tree=0
num_leaves=31
num_cat=0
split_feature=4 6 0 5 1 1 1 1 1 1 0 1 1 1 0 0 1 1 1 0 5 1 0 0 0 1 0 0 0 0
split_gain=140.609 16.0112 17.0118 10.4332 2.0679 1.72805 8.06647 2.26586 2.33059 1.43207 1.28139 1.27013 12.9768 1.10054 1.01685 1.39342 0.906463 1.2438 0.886754 0.818922 0.666055 0.472073 0.453438 2.6711 0.446744 0.458642 0.435257 0.326409 4.94537 1.29849
threshold=1.0000000180025095e-35 1.0000000180025095e-35 2.9857345260084225 1.0000000180025095e-35 0.62985718250274669 0.36886647343635565 0.36988721787929535 0.44691282510757452 0.55596908926963817 0.50961783528327953 12.534293977521218 0.38529236614704132 0.38391971588134771 0.65074211359024059 18.648315963979595 18.835949004098254 0.62902936339378368 0.62985718250274669 0.45119051635265356 12.022586917637982 1.0000000180025095e-35 0.56580117344856273 11.450556375780995 10.588214044242886 3.3023654906803599 0.50694063305854808 22.345628444584939 6.2777356898855512 5.2191418644110161 5.40056977575333
decision_type=8 2 2 2 2 2 2 2 2 2 2 2 2 2 2 2 2 2 2 2 2 2 2 2 2 2 2 2 2 2
left_child=4 3 5 11 10 -3 -7 -8 9 18 19 12 14 -6 -2 -16 -10 -18 -9 20 22 24 23 27 25 -22 -17 28 -1 -30
right_child=1 2 -4 -5 13 6 7 8 16 -11 -12 -13 -14 -15 15 26 17 -19 -20 -21 21 -23 -24 -25 -26 -27 -28 -29 29 -31
leaf_value=0.17388893406538314 -0.17711287745860799 -0.20000000000000009 0.12386173757566404 0.16735237729293151 -0.13018632215462275 0.19546656409714319 -0.1954953362578602 0.16591591054598517 -0.16209261810163664 0.17560549282674445 0.18427933431055391 -0.19510151757062014 0.18947916924033631 0.12362844220796963 0.16792391734705905 -0.19999999999999946 0.19999999999999904 -0.10948430821744107 -0.19999999999999915 0.060796773072241572 -0.17259234224362108 0.13711945964290209 0.19631031684560693 -0.050429713615911767 0.13177043640532848 0.042023173055269328 0.032636486682761555 0.17134341645394668 -0.19999999999999962 0.079151874667871436
leaf_weight=5.281070824712522 16.963794083159897 1.7326522674411515 4.8363959389389484 0.95895892682892636 0.37564046870102075 0.87413917575031508 2.7910584877827205 0.093330889940262174 1.673691461212002 0.51167292258469388 13.177163868153 10.805490924889453 1.0501265143975604 0.31332958117127419 0.20233237114734848 0.35411408339859918 0.18078325875103463 0.46101412101415917 0.22805961850099266 1.1219418602995563 0.16268606227822491 0.73916823801118881 2.2413835179177104 0.6479722363874324 0.2317459968617186 0.2566838237689808 0.10405811463715509 7.4932417674281169 0.47948101209476579 0.25538475578650832
leaf_count=257 5580 1689 890 140 40 35 1465 22 307 153 537 3483 19 34 18 169 8 132 439 67 41 71 100 235 22 36 44 399 50 58
internal_value=-3.54211e-10 -0.117175 -0.0260143 -0.157255 0.156659 -0.110829 -0.0881539 -0.129895 -0.0717423 0.0716941 0.16034 -0.167814 -0.152025 -0.0147565 -0.172373 -0.0506435 -0.123348 -0.0223079 -0.0937391 0.143659 0.148885 0.0824291 0.154519 0.147903 0.0203429 -0.0412326 -0.147165 0.157416 0.140068 -0.102988
internal_weight=76.5986 43.8217 13.3828 30.4389 32.7769 8.5464 6.81375 5.93961 3.14855 0.833063 32.0879 29.4799 18.6744 0.68897 17.6243 0.660505 2.31549 0.641797 0.321391 18.9108 17.7888 1.39028 16.3985 14.1572 0.651116 0.41937 0.458172 13.5092 6.01594 0.734866
internal_count=16540 14593 5140 9453 1947 4250 2561 2526 1061 614 1873 9313 5830 74 5811 231 447 140 461 1336 1269 170 1099 999 99 77 213 764 365 108
is_linear=0
shrinkage=0.1


Tree=1
num_leaves=31
num_cat=0
split_feature=4 0 0 0 0 0 0 2 5 0 0 6 0 0 0 5 1 1 1 0 0 0 0 0 0 0 0 0 0 0
split_gain=83.71 9.20094 11.1004 9.23555 7.8938 6.20388 9.69961 7.18598 4.94657 4.90085 5.11355 4.82001 4.31881 3.82365 8.73271 3.09585 4.9032 5.16614 10.5872 3.92499 9.66835 3.3185 4.24217 2.9895 2.58598 7.34929 7.81304 4.69828 2.46721 3.59367
threshold=1.0000000180025095e-35 11.913728512767918 11.561027723664912 12.65203495737723 16.328801626739626 10.00170265371893 9.2174817212945133 1.0000000180025095e-35 1.0000000180025095e-35 8.5167332300897396 7.941800588842554 1.0000000180025095e-35 9.3744094015909738 9.4757601184833877 10.827368423600957 1.0000000180025095e-35 0.57745128870010387 0.40016804635524755 0.56580117344856273 2.1806960156920874 2.9857345260084225 3.7426669204330176 7.1923649260394713 10.39031709896884 14.48102526863028 14.005208713798378 13.666219003721444 14.89257965826179 13.088804323554358 13.295850319097587
decision_type=8 2 2 2 2 2 2 2 2 2 2 2 2 2 2 2 2 2 2 2 2 2 2 2 2 2 2 2 2 2
left_child=1 2 5 -3 8 6 7 9 24 10 15 -2 -8 -13 -15 16 17 19 -19 -1 -21 -22 -23 -7 25 26 28 -26 -5 -30
right_child=11 3 -4 4 -6 23 12 -9 -10 -11 -12 13 -14 14 -16 -17 -18 18 -20 20 21 22 -24 -25 27 -27 -28 -29 29 -31
leaf_value=0.11252363194436468 -0.13293024326051034 0.17129358586737597 -0.1344452465291098 -0.0047094803842187768 0.11552216092724565 0.16460735237497648 -0.19117270528946653 -0.19628698525173852 -0.083221748571989204 0.14525700462234378 -0.11767441745735259 -0.094468203276414864 -0.0048497494752114748 0.15230885959008936 -0.099106155850083699 -0.081338123563395232 0.15630151200999523 -0.19414341070667729 0.079873020327418817 -0.16407958036853396 0.18637623279291327 -0.018380145090500816 0.14360930150299411 0.052565417896238587 -0.14118943457477726 0.15261590353743029 -0.14738776564397646 0.037010040552685967 0.18518607483049748 0.036513511121496742
leaf_weight=7.6192982867360248 28.147810689988546 8.6988339826930297 4.3224648945033541 4.1076720897108405 16.494207380339503 4.4851789027452451 2.9737939862534395 1.3135715780081216 3.4259025473147622 4.0671003386378279 2.2200489230453959 18.265854380093518 2.138732657302171 2.260420730803161 3.5532892176415771 1.9795932083507057 3.6432741023600093 2.717321532778441 2.9308774992823601 2.2855814993381491 1.8291279003024081 4.8435484735528007 2.426566369831562 5.0771916166413575 1.8809787593781928 6.3543444114038712 2.2631485201418391 6.9324588250019588 2.6277567036449909 4.2641192898154259
leaf_count=80 9453 117 50 36 212 45 79 53 34 66 44 4362 35 38 740 193 39 72 15 29 12 173 54 274 13 40 28 92 38 24
internal_value=1.24123e-09 0.0480599 0.0195967 0.0764351 0.0593689 0.0322672 0.0160622 0.0335139 0.0302946 0.0417699 0.0288175 -0.104832 -0.113228 -0.0719869 -0.00135382 0.0395596 0.0480177 0.0320148 -0.051955 0.0569714 0.0197931 0.0659789 0.0356875 0.105118 0.0439735 0.0641886 0.0218218 -0.00102159 0.0566366 0.0931999
internal_weight=166.15 113.923 56.8733 57.0494 48.3506 52.5508 42.9884 37.8759 31.8564 36.5623 32.4952 52.2274 5.11253 24.0796 5.81371 30.2752 28.2956 24.6523 5.6482 19.0041 11.3848 9.09924 7.27011 9.56237 28.4305 19.617 13.2627 8.81344 10.9995 6.89188
internal_count=16540 1947 1313 634 517 1263 944 830 305 777 711 14593 114 5140 778 667 474 435 87 348 268 239 227 319 271 166 126 105 98 62
is_linear=0
shrinkage=0.1


Tree=2
num_leaves=31
num_cat=0
split_feature=4 6 1 2 1 0 0 0 2 0 0 1 5 1 0 0 0 0 1 0 0 0 0 0 0 0 0 0 1 1
split_gain=112.816 7.42367 8.8089 5.82519 4.32907 6.77278 3.9956 3.71884 3.38007 5.90999 3.3402 2.52317 2.47785 3.11659 2.39415 1.94715 3.58754 4.13887 1.13474 1.08096 10.9222 3.04936 6.40423 2.54518 1.39287 1.58425 1.53267 1.21094 1.1522 1.36995
threshold=1.0000000180025095e-35 1.0000000180025095e-35 0.36988721787929535 2.3500000000000001 0.36886647343635565 3.3023654906803599 23.421011973517057 12.534293977521218 3.1500000000000008 10.132854376548478 15.91251077510532 0.68110114336013805 1.0000000180025095e-35 0.57745128870010387 12.65203495737723 10.046753457982705 10.879445561755903 14.532848070573962 0.6696683168411256 8.9454699999629543 8.6379209157330052 9.2174817212945133 9.3744094015909738 8.5167332300897396 12.022586917637982 11.913728512767918 10.588214044242886 11.450556375780995 0.3487755954265595 0.34710618853569036
decision_type=8 2 2 2 2 2 2 2 2 2 2 2 2 2 2 2 2 2 2 2 2 2 2 2 2 2 2 2 2 2
left_child=3 -2 4 6 5 -3 7 11 -5 -10 15 12 13 19 -9 -7 -17 -18 -4 20 23 -21 -23 28 25 26 -24 -28 29 -1
right_child=1 2 18 8 -6 10 -8 14 9 -11 -12 -13 -14 -15 -16 16 17 -19 -20 21 -22 22 24 -25 -26 -27 27 -29 -30 -31
leaf_value=0.059523267694288631 -0.13831163279162256 -0.15876140684736195 -0.15147877480207428 -0.18832905544586123 0.14121416191038655 -0.041590939326995431 -0.032103060217541071 0.16353396659302288 -0.1608288977227629 0.10974243379884725 -0.16001880389571399 -0.10116336463723269 -0.034018178170971296 0.13319193771494667 0.088885638159712801 0.14928618471700317 -0.099422833414704773 0.17956446239699386 0.026822687692816038 0.15874765734006108 -0.15099102707652273 -0.17480985199951637 0.093624613530629702 0.17771148770583486 -0.013072100061650247 0.15125157458372418 -0.06031454047633026 0.06952525924512952 0.012257504497493528 0.16752566041167255
leaf_weight=15.369770031422387 36.245471362839453 3.2010117177851507 8.1912169862771371 1.2082773944712233 1.5881698541343219 2.3253228757530433 3.6576190739870063 4.9625633358955374 1.3072755620814862 2.1106797936372459 0.99941560311708588 0.98166536632925172 2.6271161313634357 6.0057044606655827 32.009429962388822 2.6753578279167414 1.7899070545099678 0.75650350190699089 0.37319544982165176 3.5155692808330086 2.6028243638575068 1.1195931369438756 6.1625960911624116 1.8446738868951786 1.6137724183499802 2.8291625864803782 1.4238155891653153 1.4496258141007272 4.8210497563704839 1.2716305255889899
leaf_count=374 9453 1692 2468 92 35 123 38 20 47 45 541 21 205 26 461 25 180 18 58 23 11 76 74 32 44 29 154 69 105 1
internal_value=-2.42317e-09 -0.110537 -0.0645691 0.0649909 -0.013744 -0.0346931 0.0703674 0.0745038 -0.0445655 0.00625621 0.0117756 0.0576843 0.0606457 0.0656166 0.0989053 0.0345252 0.0684208 -0.0165396 -0.143709 0.056398 0.0432961 0.0751387 0.0550043 0.0649932 0.0740931 0.0859484 0.0655021 0.00518849 0.0553051 0.0677761
internal_weight=157.04 58.1456 21.9001 98.8944 13.3357 11.7475 94.2682 90.6106 4.62623 3.41796 8.54651 53.6386 52.6569 50.0298 36.972 7.54709 5.22177 2.54641 8.56441 44.0241 25.9099 18.1141 14.5986 23.3071 13.479 11.8652 9.03604 2.87344 21.4625 16.6414
internal_count=16540 14593 5140 1947 2614 2579 1763 1725 184 92 887 1244 1223 1018 481 346 223 198 2526 992 523 469 446 512 370 326 297 223 480 375
is_linear=0
shrinkage=0.1


Tree=3
num_leaves=31
num_cat=0
split_feature=4 6 0 0 1 1 5 0 2 0 0 0 0 0 0 0 0 0 0 0 0 0 1 0 1 0 0 0 0 0
split_gain=96.6254 6.18791 8.67792 5.06171 1.95532 4.88586 1.75836 1.65051 1.55963 3.23132 1.1587 1.44014 1.00871 6.36097 1.845 1.75687 4.67393 1.81888 1.84377 1.65033 3.22515 1.98156 1.56182 1.24691 1.02706 1.00551 0.947488 0.922544 0.820066 0.893286
threshold=1.0000000180025095e-35 1.0000000180025095e-35 9.4757601184833877 10.879445561755903 0.36988721787929535 0.36886647343635565 1.0000000180025095e-35 19.168901647317877 2.3500000000000001 11.023145875374214 3.3023654906803599 6.1986892896538119 19.419107780359948 17.38820122523838 11.913728512767918 14.42427974866834 14.774749672288253 14.22400518621645 13.295850319097587 9.2174817212945133 9.9038602850495199 8.5167332300897396 0.57745128870010387 10.588214044242886 0.40016804635524755 14.005208713798378 10.33723217967944 18.156595204370596 11.450556375780995 11.485437532949762
decision_type=8 2 2 2 2 2 2 2 2 2 2 2 2 2 2 2 2 2 2 2 2 2 2 2 2 2 2 2 2 2
left_child=6 -2 4 -4 5 10 8 -8 12 26 -3 -12 13 14 19 17 -17 18 -16 21 -21 22 24 -22 -1 -20 -10 -15 -25 -30
right_child=1 2 3 -5 -6 -7 7 -9 9 -11 11 -13 -14 27 15 16 -18 -19 25 20 23 -23 -24 28 -26 -27 -28 -29 29 -31
leaf_value=0.053535256551837107 -0.13006894611776854 -0.14722104654023882 0.11963408097985828 -0.057925719278436275 -0.13639772891806315 0.093746615178671999 -0.034151530969444614 0.11383737242845907 0.017822806446509548 -0.12845324447525139 0.056663978435769202 -0.12592662427847642 0.11332031943955163 -0.1295470028022255 0.11373890481227691 -0.097700804677354841 0.081308809114068792 0.17171526483071048 0.0033277876131097167 -0.11139907049736504 0.069267033053317772 0.12355974373053519 0.098084240986338833 -0.074370288753598413 -0.0040661918958336185 0.08142348622055838 0.1597040025072477 -0.021987565574401569 0.1310541339817127 -0.024459475224050037
leaf_weight=18.126284772530205 34.892253941856325 3.1745134796947267 3.3806774206459513 3.0575113764498383 8.196741196792571 1.5229957085102794 3.3536504184594369 0.97207526862621296 1.1276282004546367 1.2654663538560269 0.76851489813998319 0.9863867973908782 4.438222484663128 1.5444605536758893 13.037111372686928 1.6984200030565251 10.328766923397778 3.3141553290188304 2.7828676430508485 1.5486803464591492 6.2996360976248962 5.2637423928827038 6.9620714224874964 1.1817809573840352 3.7329725492745629 4.0450937189161777 0.80789947509765614 1.6486409883946178 0.60542511567473389 0.9473025033948943
leaf_count=393 9453 1692 39 739 2526 35 292 7 56 109 25 84 77 40 167 20 130 19 42 104 46 66 39 154 87 11 2 17 11 58
internal_value=6.36097e-10 -0.104222 -0.0614552 0.0353105 -0.103983 -0.0628052 0.061393 -0.000895526 0.0643635 -0.00419588 -0.111174 -0.0459657 0.0668715 0.0643897 0.0699226 0.0870417 0.05603 0.103133 0.0916912 0.0564296 0.0219336 0.06714 0.0568359 0.0447901 0.0436985 0.0495941 0.0770448 -0.0740126 -0.0115986 0.0361769
internal_weight=151.012 55.9796 21.0873 6.43819 14.6492 6.45241 95.0324 4.32573 90.7066 3.20099 4.92942 1.7549 87.5056 83.0674 79.8743 35.2064 12.0272 23.1792 19.8651 44.6679 10.5828 34.0851 28.8213 9.03414 21.8593 6.82796 1.93553 3.1931 2.73451 1.55273
internal_count=16540 14593 5140 778 4362 1836 1947 299 1648 167 1801 109 1481 1404 1347 389 150 239 220 958 373 585 519 269 480 53 58 57 223 69
is_linear=0
shrinkage=0.1


Tree=4
num_leaves=31
num_cat=0
split_feature=4 6 0 0 0 0 0 5 1 1 1 0 0 0 0 0 0 0 0 0 0 0 0 1 1 1 5 0 0 1
split_gain=81.5247 5.13366 6.06827 2.87498 2.44042 1.99342 1.99415 1.3158 0.981361 0.914123 1.85279 0.835848 0.928595 3.06666 2.5224 1.88265 1.48311 2.97537 1.83313 1.33996 2.57231 1.3792 1.28051 0.763847 4.04527 0.907401 0.703663 1.3561 0.665565 0.623719
threshold=1.0000000180025095e-35 1.0000000180025095e-35 3.3023654906803599 10.879445561755903 10.300418414337875 7.0981065275658821 6.1345688406543957 1.0000000180025095e-35 0.57745128870010387 0.40016804635524755 0.56580117344856273 7.5469540426398147 12.534293977521218 12.022586917637982 12.65203495737723 12.316411958357614 11.913728512767918 10.588214044242886 11.450556375780995 10.00170265371893 9.2174817212945133 9.3744094015909738 8.9454699999629543 0.36988721787929535 0.36886647343635565 0.6696683168411256 1.0000000180025095e-35 12.022586917637982 11.561027723664912 0.34710618853569036
decision_type=8 2 2 2 2 2 2 2 2 2 2 2 2 2 2 2 2 2 2 2 2 2 2 2 2 2 2 2 2 2
left_child=5 26 23 4 -4 6 7 8 9 29 -11 -7 13 16 -14 -15 17 19 -19 20 22 -22 -13 24 -3 -25 -2 -28 -20 -1
right_child=1 2 3 -5 -6 11 -8 -9 -10 10 -12 12 14 15 -16 -17 -18 18 28 -21 21 -23 -24 25 -26 -27 27 -29 -30 -31
leaf_value=0.035440525023358746 -0.12272527173880726 -0.13873965369260921 -0.003453201582766777 -0.072385843408673337 0.13366296214150883 0.11785987417218549 -0.085222483097989521 -0.036811692251149879 0.078858141050400093 -0.16709142622173692 0.026361153855639342 0.03275567448970642 0.14309237465242797 -0.16054680724697917 0.064796644921412336 0.025959561834736012 0.1295348523735691 -0.10660787495090329 0.09159468489400345 0.10445707025578473 -0.14718116363900821 0.033373592745999624 0.11850355933920549 -0.12975912051322977 0.057772212483812015 0.022313728789779112 -0.13888990507135415 0.14679412378304721 -0.04934276705245904 0.093814269596564054
leaf_weight=10.993496485985828 33.292048890609294 2.9864302286878246 3.2039690422825498 2.8302060149144381 2.182071752846241 3.1228612102568141 1.3159750085324038 1.9967179348459456 7.0622689443262052 0.64047556967852814 2.1808883473277092 3.9489511027932256 4.689723275601863 1.04797039553523 33.558498469297774 1.1193008488044141 2.7251588236540547 1.7334081800654524 0.9985122252255676 6.2729431129991999 0.94227873533964135 0.76779328472912312 3.1155436113476753 7.1789032646920532 1.6134976521134374 0.41505542141385365 0.40022578433854405 0.28410604037344456 0.50429979735054076 2.1960828676819792
leaf_count=224 9313 1692 127 739 21 28 72 206 41 76 15 126 20 37 517 30 30 235 22 62 79 35 23 2468 35 58 135 5 50 19
internal_value=-1.61136e-10 -0.0968496 -0.0572096 0.00921727 0.0520973 0.0579251 0.0347677 0.0410662 0.0478056 0.0341087 -0.0175544 0.0673915 0.0648257 0.0490304 0.0743967 -0.0642244 0.0607137 0.0504561 -0.0365303 0.0691639 0.0439329 -0.0661151 0.0705717 -0.101968 -0.06981 -0.121447 -0.120662 -0.0202858 0.0443002 0.0451598
internal_weight=145.32 54.3865 20.4101 8.21625 5.38604 90.9331 26.3859 25.0699 23.0732 16.0109 2.82136 64.5472 61.4244 23.1762 38.2482 2.16727 21.0089 18.2837 3.23622 15.0475 8.77457 1.71007 7.06449 12.1939 4.59993 7.59396 33.9764 0.684332 1.50281 13.1896
internal_count=16540 14593 5140 887 148 1947 653 581 375 334 91 1294 1266 729 537 67 662 632 307 325 263 114 149 4253 1727 2526 9453 140 72 243
is_linear=0
shrinkage=0.1


Tree=5
num_leaves=31
num_cat=0
split_feature=4 6 0 0 0 0 0 0 5 0 0 0 0 1 1 0 0 0 1 0 0 0 0 0 0 1 0 0 0 0
split_gain=68.4608 3.96155 4.87225 3.36048 2.4817 2.07686 1.86098 1.32484 1.30082 0.979125 0.833219 0.934949 1.10607 0.775069 3.09907 0.767141 1.92828 0.886532 0.712344 1.57236 1.06967 2.01568 0.939416 0.897288 0.610774 0.597974 0.594931 0.96324 0.562476 2.18985
threshold=1.0000000180025095e-35 1.0000000180025095e-35 3.3023654906803599 11.913728512767918 10.879445561755903 10.300418414337875 10.933458022942212 11.450556375780995 1.0000000180025095e-35 12.817731435618464 13.321467055345904 15.003587027178396 16.41596884690998 0.36988721787929535 0.36886647343635565 12.534293977521218 12.022586917637982 12.316411958357614 0.57745128870010387 7.0981065275658821 9.2174817212945133 9.9038602850495199 5.8073516290486866 9.3744094015909738 10.107180448518426 0.6696683168411256 8.5167332300897396 7.5469540426398147 14.532848070573962 15.91251077510532
decision_type=8 2 2 2 2 2 2 2 2 2 2 2 2 2 2 2 2 2 2 2 2 2 2 2 2 2 2 2 2 2
left_child=3 -2 13 6 5 -4 8 -8 18 15 -11 -12 -13 14 -3 16 -5 -18 19 22 26 23 -1 -22 -23 -15 27 -21 -6 -30
right_child=1 2 4 9 28 -7 7 -9 -10 10 11 12 -14 25 -16 -17 17 -19 -20 20 21 24 -24 -25 -26 -27 -28 -29 29 -31
leaf_value=0.021463361425039108 -0.11325823279333101 -0.13147157237074344 -0.0074219795836556581 0.122207417299145 -0.11087648182472157 0.12576082829690702 -0.1226186869600078 0.015233135808455884 -0.034603539777323868 0.017625069322795287 0.093236812377948217 -0.00020262278479405327 0.067712201412511108 -0.12434944440875605 0.042206372639108133 0.12343282040889664 -0.12412969629970008 0.033883272727027514 0.073228441037895997 0.080831697865903537 -0.14023742489563173 0.021139232842710826 -0.073098822947998562 0.017841909983362592 0.076326915415070029 -5.0336007501267437e-05 0.10473719630845446 -0.015518938936185243 0.13713390083908739 -0.12675578029172774
leaf_weight=14.775466504805079 32.354173320345581 2.6226335403043795 2.6934912025462827 2.5246930550783855 1.4703720835968854 2.0712647326290607 1.2111046249046915 1.6429153354838488 2.2218210075516245 3.2970909363066339 11.106385482009502 2.9138780888170031 13.545327880390685 6.7003733196761459 1.689104627817869 6.0848521944135427 0.52730305166915048 1.0870315628126261 6.9288725562219033 4.1497117094695586 0.86422607116401085 3.5471968716010434 1.1309793423861254 0.61430626735091209 4.6136887287721038 0.41075758077204216 4.8427147418260574 1.3835231699049471 0.52562798932194688 0.78275296790525317
leaf_count=323 9453 1692 127 30 180 21 176 72 213 67 128 93 210 2468 35 39 37 30 41 28 76 23 82 29 101 58 67 82 18 541
internal_value=-1.92763e-09 -0.0919859 -0.0556982 0.0530346 0.00667146 0.0504733 0.0350444 -0.0432643 0.0400029 0.0740197 0.0651346 0.0708172 0.0556888 -0.0968863 -0.063434 0.100841 0.0676281 -0.0177298 0.0438713 0.0382087 0.0568597 0.0328751 0.0147398 -0.074558 0.0523391 -0.11717 0.0791417 0.0567403 -0.068436 -0.0207409
internal_weight=140.334 51.3206 18.9664 89.0131 7.54351 4.76476 47.9265 2.85402 45.0725 41.0866 30.8627 27.5656 16.4592 11.4229 4.31174 10.2239 4.13903 1.61433 42.8507 35.9218 20.0154 9.63942 15.9064 1.47853 8.16089 7.11113 10.3759 5.53323 2.77875 1.30838
internal_count=16540 14593 5140 1947 887 148 1313 248 1065 634 498 431 303 4253 1727 136 97 67 852 811 406 229 405 105 124 2526 177 110 739 559
is_linear=0
shrinkage=0.1


Tree=6
num_leaves=31
num_cat=0
split_feature=4 6 0 0 0 1 1 1 1 1 1 0 0 0 0 0 1 1 1 5 0 1 0 0 0 0 0 0 5 0
split_gain=55.1129 3.60672 4.46932 2.72576 2.05306 1.1082 1.89875 1.0904 1.37404 1.08365 2.00087 0.730001 0.847381 0.7054 2.20401 0.617238 0.529701 0.518915 2.30257 0.588671 0.738417 0.497292 0.480197 3.16707 0.456804 1.18393 0.813141 1.33236 0.674862 0.444724
threshold=1.0000000180025095e-35 1.0000000180025095e-35 9.2615203079920239 10.879445561755903 7.1923649260394713 0.36988721787929535 0.36886647343635565 0.57745128870010387 0.58532774448394786 0.6696683168411256 0.62624686956405651 3.3023654906803599 6.1986892896538119 14.532848070573962 15.91251077510532 10.300418414337875 0.6696683168411256 0.38529236614704132 0.38391971588134771 1.0000000180025095e-35 12.022586917637982 0.67219519615173351 4.5718620515351533 6.5878572750088127 15.003587027178396 14.22400518621645 16.41596884690998 16.104696055889679 1.0000000180025095e-35 13.295850319097587
decision_type=8 2 2 2 2 2 2 2 2 2 2 2 2 2 2 2 2 2 2 2 2 2 2 2 2 2 2 2 2 2
left_child=4 17 5 15 7 6 11 -1 -9 10 -10 -3 -13 -5 -15 -4 -7 18 19 22 -21 -18 -2 -24 25 28 27 -26 29 -6
right_child=1 2 3 13 24 16 -8 8 9 -11 -12 12 -14 14 -16 -17 21 -19 -20 20 -22 -23 23 -25 26 -27 -28 -29 -30 -31
leaf_value=0.012782836328199709 -0.13936765061421141 -0.12654517351155917 0.02756762440900511 -0.10086002029240325 0.064462966688673393 -0.11930245297179941 0.03153829545736038 0.13384964857682094 0.05454946503582582 0.098796794625151951 -0.091635323774514707 0.029282330009128277 -0.1215928052153845 0.12836047225461664 -0.12599463265305136 0.12049720076628052 0.11959205661650706 -0.12335550516282773 0.11215808969656343 -0.12925652825301834 0.11631032175138217 -0.10269183179584676 0.034203151007705171 -0.11390718747867837 0.029927811620848035 0.10907423856748542 0.052578751179064742 -0.15669893119499556 -0.031950313740866522 0.035368532966019099
leaf_weight=19.951813764542752 3.3424024377018346 2.3586085427086823 1.1264810543507331 1.3813512898050251 30.719855777279008 6.2255301479017362 1.8431354761123655 1.7869783043861378 2.8413276529608993 1.8108358797617254 1.3964808071032164 0.84126744465902425 0.66772087477147579 0.67793828621506669 0.68476978573016822 1.9554171487689016 0.18493318557739247 11.43947361782193 0.5151003822684278 0.22327506844885547 0.27116783894598484 0.22082513896748424 1.6257108340505499 12.897736942628397 1.6415557508880767 5.042646385729312 14.128895258472765 0.49876726046204556 0.82514517335221071 6.3376337224617592
leaf_count=539 1372 1692 34 180 818 2468 35 21 29 25 51 25 68 18 541 21 4 3564 19 54 5 54 347 4092 67 53 210 26 44 64
internal_value=2.13382e-10 -0.0854346 -0.0502027 0.0219872 0.0476204 -0.0842794 -0.0519893 0.0251969 0.0568069 0.0340458 0.00637734 -0.0917951 -0.0374793 -0.0505018 0.000545356 0.08653 -0.112087 -0.106549 -0.0963641 -0.102214 0.00541996 -0.00138111 -0.105193 -0.0973282 0.0581466 0.0635547 0.0438774 -0.0135625 0.0574955 0.0594872
internal_weight=135.465 48.4828 18.168 5.82596 86.9819 12.342 5.71073 27.7874 7.83562 6.04864 4.23781 3.8676 1.50899 2.74406 1.36271 3.0819 6.63129 30.3149 18.8754 18.3603 0.494443 0.405758 17.8659 14.5234 59.1945 42.9253 16.2692 2.14032 37.8826 37.0575
internal_count=16540 14593 5140 794 1947 4346 1820 665 126 105 80 1785 93 739 559 55 2526 9453 5889 5870 59 58 5811 4439 1282 979 303 93 926 882
is_linear=0
shrinkage=0.1


Tree=7
num_leaves=31
num_cat=0
split_feature=4 1 6 0 0 0 1 0 0 0 0 0 0 0 0 1 0 0 0 0 0 0 0 0 0 0 1 1 1 0
split_gain=41.0294 3.8156 3.1176 2.77395 2.91457 2.8163 2.62741 2.09831 1.96026 1.4237 1.44278 1.34544 1.28646 1.25515 2.33378 1.35547 1.12938 1.65824 4.64109 1.4864 1.96573 1.68836 1.12054 1.0599 1.0559 1.63944 1.04431 1.52476 1.2581 0.794931
threshold=1.0000000180025095e-35 0.38529236614704132 1.0000000180025095e-35 5.8073516290486866 4.5718620515351533 4.8318400622393822 0.38391971588134771 11.913728512767918 5.6535054835561249 10.588214044242886 10.00170265371893 12.65203495737723 11.450556375780995 9.4757601184833877 10.827368423600957 0.36886647343635565 9.2174817212945133 8.9454699999629543 8.717885518681916 8.5167332300897396 7.5469540426398147 7.0981065275658821 7.7138074759662549 9.3744094015909738 12.534293977521218 12.022586917637982 0.60419273376464855 0.62160083651542675 0.6696683168411256 13.088804323554358
decision_type=8 2 2 2 2 2 2 2 2 2 2 2 2 2 2 2 2 2 2 2 2 2 2 2 2 2 2 2 2 2
left_child=7 2 3 4 6 -6 -2 9 -7 10 16 24 -11 15 -15 -4 17 18 19 20 21 26 -22 -18 25 -9 -1 -28 -29 -13
right_child=1 -3 13 -5 5 8 -8 11 -10 12 -12 29 -14 14 -16 -17 23 -19 -20 -21 22 -23 -24 -25 -26 -27 27 28 -30 -31
leaf_value=0.0086797421493781304 -0.12547183345085447 -0.11692177680788612 -0.082979102069728999 -0.10688581779158578 0.18611232467386482 -0.13004386928171816 0.10589717687007177 0.11272797818516056 0.11666558896683642 -0.10433460780589709 0.073432760245744841 -0.0046748166200310795 0.025151311253290249 0.087779353477084543 -0.046292975153969282 0.014452583321830782 -0.13276684401405542 0.10184115405526573 -0.18927592080679689 0.12447816607970902 -0.19869419078618134 0.094225419506665201 -0.02283960421914806 0.021871839648833005 0.13172262185645564 -0.020544602174713638 0.12389561328093286 -0.088945550250653177 0.059343716642902583 0.05294000186690058
leaf_weight=19.046364048692357 2.7151255480712311 15.63342226995155 3.6979898525169137 12.826160778698975 1.0284127364866438 0.82274047890678026 0.59911660151556123 2.2273625992238517 0.52923412492964417 1.541658618487417 6.643808899447321 2.6009684531309167 1.5275028414325786 2.6351607609540224 2.5592337884008884 2.3259976201807149 0.88275678548961767 2.7061805576086035 1.0226413793861855 1.4970062226057042 0.56849274784326442 3.4216574095189562 0.99923303630203009 0.89018540643155575 3.8634996339678764 1.5762149579823015 2.1289200506289481 0.86297516711056266 1.6976015726104376 30.205018176930025
leaf_count=562 1383 6021 1801 4292 37 132 19 30 26 235 62 37 72 38 740 104 79 23 10 34 10 28 72 35 20 67 13 53 25 480
internal_value=2.25129e-09 -0.0769253 -0.0558997 -0.0810986 -0.0230174 0.0613981 -0.0836472 0.0406274 -0.0334688 0.0258774 0.0306417 0.0571864 -0.0398903 -0.0142981 0.0217231 -0.0453585 0.0226835 0.0267467 0.0202426 0.0273321 0.0222694 0.0285546 -0.0866084 -0.0551235 0.094901 0.0574994 0.0190878 0.0613601 0.00936671 0.0483721
internal_weight=131.283 45.3726 29.7392 18.5208 5.69463 2.38039 3.31424 85.91 1.35197 45.437 42.3678 40.4731 3.06916 11.2184 5.19439 6.02399 35.724 33.9511 31.2449 30.2223 28.7252 27.1575 1.56773 1.77294 7.66708 3.80358 23.7359 4.6895 2.56058 32.806
internal_count=16540 14593 8572 5889 1597 195 1402 1947 158 1313 1006 634 307 2683 778 1905 944 830 807 797 763 681 82 114 117 97 653 91 78 517
is_linear=0
shrinkage=0.1


Tree=8
num_leaves=31
num_cat=0
split_feature=4 1 6 1 0 0 1 0 0 0 0 5 0 0 0 1 1 1 0 0 0 0 0 5 0 5 1 0 0 0
split_gain=38.3145 2.87627 3.2438 2.53946 1.9564 1.29142 1.50346 1.29374 1.24981 1.2151 1.11973 1.09085 0.949089 0.912541 1.37278 0.801873 0.903828 1.47555 0.756027 0.610436 0.590656 0.489754 1.65943 0.487269 0.486351 0.465433 0.435907 0.931713 1.00798 1.42159
threshold=1.0000000180025095e-35 0.38529236614704132 1.0000000180025095e-35 0.38391971588134771 11.913728512767918 4.8318400622393822 0.36886647343635565 10.879445561755903 10.300418414337875 10.588214044242886 12.65203495737723 1.0000000180025095e-35 11.450556375780995 12.534293977521218 12.022586917637982 0.57745128870010387 0.40016804635524755 0.56580117344856273 6.1986892896538119 12.316411958357614 11.561027723664912 14.532848070573962 15.91251077510532 1.0000000180025095e-35 12.022586917637982 1.0000000180025095e-35 0.33535988628864294 7.1923649260394713 9.2174817212945133 9.9038602850495199
decision_type=8 2 2 2 2 2 2 2 2 2 2 2 2 2 2 2 2 2 2 2 2 2 2 2 2 2 2 2 2 2
left_child=4 2 3 23 9 6 -4 8 18 11 13 15 -11 14 -6 16 26 -18 -7 -16 -14 -9 -23 -2 -25 -20 27 -1 -29 -30
right_child=1 -3 5 -5 10 7 -8 21 -10 12 -12 -13 20 -15 19 -17 17 -19 25 -21 -22 22 -24 24 -26 -27 -28 28 29 -31
leaf_value=0.0062654167862392493 -0.097450617673534315 -0.11242585376022518 -0.10803784985862755 0.097854137953452755 0.10932727150403235 0.10420483753358911 0.0065735885008951821 -0.088900382883048856 0.11335415479055139 -0.094405060406740376 0.047759318778204961 -0.039949494074343089 0.067577096590458866 0.12782473754569623 -0.10820444245202465 0.066690923102055863 -0.15194035748983512 0.013799958272140346 -0.11006552347025003 0.027768959252003064 -0.059198307869597899 0.11261238262077072 -0.11658375706342816 -0.11229969525531827 0.10802177782226358 0.0031956457612150168 0.065359543231881131 0.07253917136081732 -0.067041453345563856 0.039481780424312815
leaf_weight=11.419443495571619 15.286075406940652 15.087399626150725 2.524632981047036 0.71718232240527946 2.0429283939301963 0.51729164365679103 2.0937639020849019 1.2000165353529157 1.7117408476769922 1.4523428743705147 31.4500371311442 2.1442769209388635 0.94327627867460229 3.5256225019693375 0.49016473535448302 6.083529019058914 0.70340663105889634 2.272677555680275 0.54391748295165565 1.01147826295346 0.60207978764083236 0.64461445622146107 0.61947065335698426 0.17590637342073101 0.23277934454381466 1.0897439983673394 3.537953929975628 6.8788275662809601 1.503709233365951 7.5084019964560866
leaf_count=301 5811 6021 1704 19 30 13 104 180 21 235 517 213 22 20 37 41 76 15 57 30 50 18 541 54 5 45 25 165 105 65
internal_value=-2.48655e-09 -0.0773723 -0.0580403 -0.0861609 0.0392967 -0.0158745 -0.0560784 0.0134733 0.0495905 0.0251485 0.0558432 0.0295334 -0.0363635 0.0918022 0.0559722 0.0332668 0.0272552 -0.0253733 -0.0011529 -0.0166153 0.0181847 -0.0431437 0.000293773 -0.0945695 0.0131911 -0.034514 0.0323325 0.028054 0.0437116 0.0217079
internal_weight=126.015 42.4445 27.3571 16.4119 83.5702 10.9452 4.6184 6.3268 3.86269 45.0499 38.5202 42.0522 2.9977 7.07019 3.54457 39.9079 33.8244 2.97608 2.15095 1.50164 1.54536 2.4641 1.26409 15.6948 0.408686 1.63366 30.8483 27.3104 15.8909 9.01211
internal_count=16540 14593 8572 5889 1947 2683 1808 875 136 1313 634 1006 307 117 97 793 752 91 115 67 72 739 559 5870 59 102 661 636 335 170
is_linear=0
shrinkage=0.1


Tree=9
num_leaves=31
num_cat=0
split_feature=4 1 6 1 0 0 1 1 1 1 2 2 0 0 0 1 0 0 0 0 0 0 0 0 0 0 0 0 0 1
split_gain=30.7501 2.92642 2.7027 2.43416 1.50604 1.24535 1.03417 1.74126 1.02292 1.74289 0.937999 0.991278 0.909534 0.884437 1.74088 1.23031 0.836554 1.09907 0.746345 0.718812 0.89262 0.970272 0.790714 2.06025 0.958397 0.493687 0.979175 0.835125 0.534185 0.488349
threshold=1.0000000180025095e-35 0.38529236614704132 1.0000000180025095e-35 0.38391971588134771 11.913728512767918 12.65203495737723 0.68110114336013805 0.6696683168411256 0.62624686956405651 0.60419273376464855 3.2500000000000004 3.1500000000000008 9.4757601184833877 9.4757601184833877 10.827368423600957 0.36886647343635565 12.534293977521218 12.022586917637982 3.3023654906803599 10.933458022942212 11.234622749427151 11.707406460547125 3.6329404154038358 3.7426669204330176 5.5423556089337991 18.835949004098254 17.38820122523838 20.359602117562133 18.156595204370596 0.57745128870010387
decision_type=8 2 2 2 2 2 2 2 2 2 2 2 2 2 2 2 2 2 2 2 2 2 2 2 2 2 2 2 2 2
left_child=4 2 3 -2 6 16 7 8 9 10 11 19 -12 15 -15 18 17 -6 -4 22 -21 -22 29 -24 -25 26 -7 -27 -28 -1
right_child=1 -3 13 -5 5 25 -8 -9 -10 -11 12 -13 -14 14 -16 -17 -18 -19 -20 20 21 -23 23 24 -26 27 28 -29 -30 -31
leaf_value=-0.0029168350071400295 -0.088836613472028161 -0.11031189331215743 -0.1189219408374971 0.095309330990921579 0.10497850292144835 0.039163907452815533 -0.095701681997970606 0.15938553446916981 -0.099979054188801875 0.11485284667926826 -0.1724133760604919 0.12631818077339788 0.015605537651516671 0.081857056161607628 -0.040899472952442811 0.027534949931433839 0.12574692931855375 -0.012042381943496112 -0.02339318745736213 -0.12121395006525548 0.047540384475539064 -0.13799482619545134 0.15417296744041059 -0.056588454482889988 0.032030731259659884 0.12410346079400553 -0.10488008342375882 0.042108799722824448 0.035852130853667258 0.050690910735517063
leaf_weight=12.690144988438986 14.251049792423144 13.942658586543983 1.8390153711661699 0.75591128319501955 1.8293065438047045 24.0005045173748 0.73315783776342769 0.9306887686252584 0.68618852691724797 1.9746018114965398 0.49941870616748818 0.87570123141631384 0.53067227266728878 2.2868100870400667 2.3347259206930175 1.7338919558096675 3.1767818182706833 1.4300160985440014 1.4728495792951433 0.78933368856087271 1.3153941964847033 0.35873510316014279 1.3449602723121667 1.3026197119615996 19.326313175261021 1.783490179106592 0.75221300049452 4.092562859877944 0.42048378102481365 1.9620557907037426
leaf_count=311 5870 6021 1692 19 30 345 22 3 51 15 34 2 28 38 740 104 20 67 109 137 58 35 9 102 472 21 69 69 13 34
internal_value=1.99921e-10 -0.073691 -0.0529977 -0.0795611 0.0343664 0.0491951 0.0221012 0.0240383 0.0211528 0.0230872 0.0186672 0.0210956 -0.0755516 -0.0117622 0.0198424 -0.0407097 0.0892291 0.053636 -0.0764385 0.0187384 -0.0335493 0.0077836 0.0222552 0.0342533 0.0264348 0.0408965 0.0348043 0.0669957 -0.0544189 0.0042617
internal_weight=121.422 38.6169 24.6743 15.007 82.8053 37.4854 45.32 44.5868 43.6561 42.97 40.9953 39.9653 1.03009 9.66729 4.62154 5.04576 6.4361 3.25932 3.31186 39.0896 2.46346 1.67413 36.6261 21.9739 20.6289 31.0493 25.1732 5.87605 1.1727 14.6522
internal_count=16540 14593 8572 5889 1947 634 1313 1291 1288 1237 1222 1160 62 2683 778 1905 117 97 1801 1158 230 93 928 583 574 517 427 90 82 345
is_linear=0
shrinkage=0.1


end of trees

feature_importances:
BM25_Score=190
SBERT_Score=70
genre_match=14
recency_signal=10
platform_match=10
rating_signal=6

parameters:
[boosting: gbdt]
[objective: lambdarank]
[metric: ndcg]
[tree_learner: serial]
[device_type: cpu]
[data_sample_strategy: bagging]
[data: ]
[valid: ]
[num_iterations: 100]
[learning_rate: 0.1]
[num_leaves: 31]
[num_threads: 0]
[seed: 0]
[deterministic: 0]
[force_col_wise: 0]
[force_row_wise: 0]
[histogram_pool_size: -1]
[max_depth: -1]
[min_data_in_leaf: 20]
[min_sum_hessian_in_leaf: 0.001]
[bagging_fraction: 1]
[pos_bagging_fraction: 1]
[neg_bagging_fraction: 1]
[bagging_freq: 0]
[bagging_seed: 3]
[bagging_by_query: 0]
[feature_fraction: 1]
[feature_fraction_bynode: 1]
[feature_fraction_seed: 2]
[extra_trees: 0]
[extra_seed: 6]
[early_stopping_round: 0]
[early_stopping_min_delta: 0]
[first_metric_only: 0]
[max_delta_step: 0]
[lambda_l1: 0]
[lambda_l2: 0]
[linear_lambda: 0]
[min_gain_to_split: 0]
[drop_rate: 0.1]
[max_drop: 50]
[skip_drop: 0.5]
[xgboost_dart_mode: 0]
[uniform_drop: 0]
[drop_seed: 4]
[top_rate: 0.2]
[other_rate: 0.1]
[min_data_per_group: 100]
[max_cat_threshold: 32]
[cat_l2: 10]
[cat_smooth: 10]
[max_cat_to_onehot: 4]
[top_k: 20]
[monotone_constraints: ]
[monotone_constraints_method: basic]
[monotone_penalty: 0]
[feature_contri: ]
[forcedsplits_filename: ]
[refit_decay_rate: 0.9]
[cegb_tradeoff: 1]
[cegb_penalty_split: 0]
[cegb_penalty_feature_lazy: ]
[cegb_penalty_feature_coupled: ]
[path_smooth: 0]
[interaction_constraints: ]
[verbosity: -1]
[saved_feature_importance_type: 0]
[use_quantized_grad: 0]
[num_grad_quant_bins: 4]
[quant_train_renew_leaf: 0]
[stochastic_rounding: 1]
[linear_tree: 0]
[max_bin: 255]
[max_bin_by_feature: ]
[min_data_in_bin: 3]
[bin_construct_sample_cnt: 200000]
[data_random_seed: 1]
[is_enable_sparse: 1]
[enable_bundle: 1]
[use_missing: 1]
[zero_as_missing: 0]
[feature_pre_filter: 1]
[pre_partition: 0]
[two_round: 0]
[header: 0]
[label_column: ]
[weight_column: ]
[group_column: ]
[ignore_column: ]
[categorical_feature: ]
[forcedbins_filename: ]
[precise_float_parser: 0]
[parser_config_file: ]
[objective_seed: 5]
[num_class: 1]
[is_unbalance: 0]
[scale_pos_weight: 1]
[sigmoid: 1]
[boost_from_average: 1]
[reg_sqrt: 0]
[alpha: 0.9]
[fair_c: 1]
[poisson_max_delta_step: 0.7]
[tweedie_variance_power: 1.5]
[lambdarank_truncation_level: 30]
[lambdarank_norm: 1]
[label_gain: ]
[lambdarank_position_bias_regularization: 0]
[eval_at: 10]
[multi_error_top_k: 1]
[auc_mu_weights: ]
[num_machines: 1]
[local_listen_port: 12400]
[time_out: 120]
[machine_list_filename: ]
[machines: ]
[gpu_platform_id: -1]
[gpu_device_id: -1]
[gpu_use_dp: 0]
[num_gpu: 1]

end of parameters

pandas_categorical:[]
